svm_type c_svc
kernel_type linear
nr_class 3
total_sv 12
rho 10.161906736004578 -13.559997234581013 -5.795190522474142
label 1 2 3
nr_sv 6 1 5
SV
1.4444101015743197e-09 0 1:1.38 2:-0.12 3:-0.27 4:0.68 5:69.43 6:54.77 7:9.4 8:3.05 9:4.36 10:111785.42 11:87209 12:99921.64 13:3.35 14:1.74 15:2.09 16:332.68 17:301.94 18:319.27 19:15.59 20:4.12 21:8.24 22:1746.65 23:612.56 24:860 25:-1.34 26:-9.82 27:-11.51 28:-442.07 29:-1678.11 30:-1204.15 
0 8.3752806683935712e-06 1:1.57 2:-0.38 3:-0.45 4:0.74 5:74.14 6:78.11 7:13.12 8:3.79 9:7.04 10:130090.53 11:121083.74 12:127183.54 13:3.93 14:1.97 15:2.68 16:358.89 17:354.09 18:363.35 19:16 20:5.16 21:12.13 22:1997.99 23:867.68 24:1200.43 25:-1.34 26:-13.03 27:-14.51 28:-667.93 29:-1998.05 30:-1475.98 
0 5.4394007737496889e-07 1:2.27 2:-0.42 3:-0.08 4:58.62 5:-34.31 6:-1.76 7:20.06 8:6.98 9:5.11 10:239862.11 11:204340.72 12:168610.08 13:5 14:2.66 15:2.25 16:490.84 17:451.1 18:408.59 19:16 20:11.38 21:2.99 22:1963.84 23:784.02 24:1256.22 25:-1.26 26:-9.68 27:-9.04 28:-671.65 29:-1864.21 30:-1516.4 
7.029107106439061e-10 0 1:0.8 2:0.02 3:0.46 4:11.53 5:2.63 6:9.67 7:7.84 8:3.4 9:3.94 10:123070.11 11:91874.58 12:52059.6 13:2.9 14:1.83 15:2.03 16:349.26 17:301.62 18:227.24 19:16 20:11.5 21:10.53 22:1968.05 23:549.88 24:638.9 25:-2.58 26:-6.05 27:-8.29 28:-760.24 29:-1760.3 30:-902.44 
1.274426380704668e-09 0 1:1.15 2:0.1 3:0.32 4:-3.49 5:4.57 6:10.67 7:9.85 8:1.83 9:4.68 10:70386.06 11:111755.69 12:46564.81 13:3.33 14:1.35 15:2.18 16:264.01 17:332.67 18:214.98 19:15.56 20:4.8 21:14.02 22:1318.35 23:355 24:676.65 25:-1.95 26:-7.75 27:-6.39 28:-368.84 29:-1998.05 30:-864.21 
0 3.0074827152358458e-06 1:1.43 2:-0.14 3:0.08 4:17.09 5:-15.45 6:19.24 7:14.11 8:2.94 9:4.5 10:72767.34 11:140969.65 12:59600.76 13:4 14:1.71 15:2.11 16:268.96 17:373.92 18:243.68 19:16 20:7.21 21:13.13 22:1468.29 23:385.18 24:943.84 25:-1.34 26:-6.49 27:-5.76 28:-594.27 29:-1998.05 30:-938.05 
-3.4217471929228929e-09 6.9317705598762697e-10 1:0.82 2:-0.04 3:0.27 4:-46.79 5:20.38 6:25.98 7:2.94 8:0.52 9:1.66 10:90656.44 11:74906.04 12:66134.5 13:1.89 14:0.72 15:1.31 16:303.23 17:273.09 18:257.21 19:4.4 20:1.34 21:2.38 22:1120.18 23:623.66 24:778.54 25:-2.04 26:-2.52 27:-3.94 28:-478.35 29:-818.29 30:-520.06 
-2.3480728106155493e-06 -0 1:1.71 2:-0.27 3:-0.08 4:-10.12 5:35.44 6:-10.7 7:16.56 8:8.08 9:17.52 10:131508.57 11:135412.09 12:111417.05 13:4.39 14:2.84 15:4.17 16:360.98 17:367.87 18:332.31 19:16 20:16 21:16 22:1997.99 23:1220.3 24:882.32 25:-1.77 26:-16 27:-16 28:-858.17 29:-1998.05 30:-1501.83 
-1.0567699785092327e-06 -0 1:2.36 2:-0.13 3:0.05 4:26.14 5:60.12 6:30.83 7:17.65 8:13.71 9:14.17 10:144229.01 11:120383.89 12:150967.18 13:4.8 14:3.69 15:3.75 16:378.79 17:350.44 18:387.84 19:16 20:16 21:16 22:1997.99 23:822.87 24:1183.11 25:-0.82 26:-16 27:-16 28:-1178.72 29:-1998.05 30:-1889.82 
-2.3450294956481877e-06 -0 1:2.12 2:-0.36 3:0.35 4:41.35 5:53.78 6:27.59 7:17.59 8:7.23 9:11.49 10:110036.24 11:131232.84 12:124379.1 13:4.68 14:2.7 15:3.39 16:332.65 17:364.45 18:352.01 19:16 20:8.48 21:16 22:1997.99 23:868.84 24:1270.55 25:-1.91 26:-16 27:-12.76 28:-556.16 29:-1998.05 30:-1813.48 
-3.5995637342250941e-06 -6.9317705598762697e-10 1:1.37 2:-0.42 3:0.04 4:40.67 5:37.38 6:20.42 7:15.95 8:9.25 9:14.09 10:117612.56 11:116630.66 12:86477.57 13:4.2 14:3.06 15:3.73 16:343.66 17:341.87 18:293.32 19:16 20:16 21:16 22:1997.99 23:723.41 24:1053.05 25:-2.19 26:-16 27:-16 28:-1242.62 29:-1998.05 30:-1521.34 
-2.5772674420064757e-06 -0 1:2.14 2:-0.5 3:0.05 4:55.52 5:70.8 6:34.55 7:18.72 8:8.29 9:15.73 10:114936.21 11:146099.45 12:121078.04 13:4.81 14:2.91 15:3.95 16:341.88 17:386.87 18:347.96 19:16 20:16 21:16 22:1997.99 23:904.39 24:1476.59 25:-1.29 26:-16 27:-16 28:-720.43 29:-1998.05 30:-1352.8 
